{"levels":[{"inputs":[0,0.15477630003493448,0,0,0],"outputs":[0,0,0,0,0,1],"biases":[0.521597789327309,0.27246332498309045,0.05456844755479903,0.2642921993645625,0.28797024562812235,-0.2500303023066858],"weights":[[0.20448102754890835,0.39920975230168076,0.019758093721404912,0.5867233966144345,0.20521349768257097,-0.4613251022329045],[0.2930402019330179,0.690581469141518,-0.3207401125752787,0.07351029149993887,-0.03337971352225713,0.42623649896722193],[0.5547406476457138,0.5698515160793424,-0.15440793118185436,0.5654166994930482,-0.07459669588984442,-0.7182035285702159],[0.12432893865596635,-0.4333328606233247,0.16274487483483369,-0.017682145368083768,-0.201347800199932,-0.21364116340088118],[-0.038032702876700075,-0.7087900580958597,-0.6654660521855689,0.41207721292692456,-0.05524573519258452,0.6982614754114662]]},{"inputs":[0,0,0,0,0,1],"outputs":[1,0,0,0],"biases":[-0.5862452706630553,0.32092729221938887,0.43144826550827964,-0.09471563940995688],"weights":[[-0.6683406812353165,0.1411414201999866,-0.7278554025497674,0.49358300106061814],[-0.085927315399594,-0.33602856712931894,0.34481760611415374,-0.08296844133101161],[-0.12823474158419929,0.514766798530879,0.2926525251521333,0.5624974886340097],[-0.08837875156159618,0.07105135667940657,0.3502641880413923,-0.3894138938568974],[0.37301660998945796,0.28345342698431436,-0.2627930448286808,-0.0581683121073292],[0.420302690751945,0.3084014610388337,-0.10592739734814297,-0.4421473545088029]]}]}